digraph Tree {
node [shape=box] ;
0 [label="Swipes by 12:15pm <= 245.0\ngini = 0.309\nsamples = 28\nvalue = [3, 23, 2]\nclass = normal day"] ;
1 [label="Swipes by 12:15pm <= 201.5\ngini = 0.211\nsamples = 25\nvalue = [3, 22, 0]\nclass = normal day"] ;
0 -> 1 [labeldistance=2.5, labelangle=45, headlabel="True"] ;
2 [label="Swipes by 11:45am <= 73.5\ngini = 0.444\nsamples = 3\nvalue = [2, 1, 0]\nclass = low-traffic day"] ;
1 -> 2 ;
3 [label="gini = 0.0\nsamples = 1\nvalue = [0, 1, 0]\nclass = normal day"] ;
2 -> 3 ;
4 [label="gini = 0.0\nsamples = 2\nvalue = [2, 0, 0]\nclass = low-traffic day"] ;
2 -> 4 ;
5 [label="Day of the Week <= 0.5\ngini = 0.087\nsamples = 22\nvalue = [1, 21, 0]\nclass = normal day"] ;
1 -> 5 ;
6 [label="Swipes by 12:15pm <= 204.0\ngini = 0.5\nsamples = 2\nvalue = [1, 1, 0]\nclass = low-traffic day"] ;
5 -> 6 ;
7 [label="gini = 0.0\nsamples = 1\nvalue = [0, 1, 0]\nclass = normal day"] ;
6 -> 7 ;
8 [label="gini = 0.0\nsamples = 1\nvalue = [1, 0, 0]\nclass = low-traffic day"] ;
6 -> 8 ;
9 [label="gini = 0.0\nsamples = 20\nvalue = [0, 20, 0]\nclass = normal day"] ;
5 -> 9 ;
10 [label="Day of the Week <= 2.5\ngini = 0.444\nsamples = 3\nvalue = [0, 1, 2]\nclass = high-traffic day"] ;
0 -> 10 [labeldistance=2.5, labelangle=-45, headlabel="False"] ;
11 [label="gini = 0.0\nsamples = 2\nvalue = [0, 0, 2]\nclass = high-traffic day"] ;
10 -> 11 ;
12 [label="gini = 0.0\nsamples = 1\nvalue = [0, 1, 0]\nclass = normal day"] ;
10 -> 12 ;
}