digraph Tree {
node [shape=box] ;
0 [label="Swipes by 12:00pm <= 160.0\ngini = 0.554\nsamples = 28\nvalue = [5, 17, 6]\nclass = normal day"] ;
1 [label="gini = 0.0\nsamples = 4\nvalue = [4, 0, 0]\nclass = low-traffic day"] ;
0 -> 1 [labeldistance=2.5, labelangle=45, headlabel="True"] ;
2 [label="Swipes by 12:15pm <= 251.5\ngini = 0.434\nsamples = 24\nvalue = [1, 17, 6]\nclass = normal day"] ;
0 -> 2 [labeldistance=2.5, labelangle=-45, headlabel="False"] ;
3 [label="Swipes by 11:45am <= 90.5\ngini = 0.322\nsamples = 21\nvalue = [1, 17, 3]\nclass = normal day"] ;
2 -> 3 ;
4 [label="Swipes by 11:45am <= 85.5\ngini = 0.611\nsamples = 6\nvalue = [1, 3, 2]\nclass = normal day"] ;
3 -> 4 ;
5 [label="gini = 0.0\nsamples = 3\nvalue = [0, 3, 0]\nclass = normal day"] ;
4 -> 5 ;
6 [label="Swipes by 12:15pm <= 237.5\ngini = 0.444\nsamples = 3\nvalue = [1, 0, 2]\nclass = high-traffic day"] ;
4 -> 6 ;
7 [label="gini = 0.0\nsamples = 1\nvalue = [1, 0, 0]\nclass = low-traffic day"] ;
6 -> 7 ;
8 [label="gini = 0.0\nsamples = 2\nvalue = [0, 0, 2]\nclass = high-traffic day"] ;
6 -> 8 ;
9 [label="Swipes by 12:15pm <= 240.5\ngini = 0.124\nsamples = 15\nvalue = [0, 14, 1]\nclass = normal day"] ;
3 -> 9 ;
10 [label="Swipes by 12:15pm <= 239.5\ngini = 0.32\nsamples = 5\nvalue = [0, 4, 1]\nclass = normal day"] ;
9 -> 10 ;
11 [label="gini = 0.0\nsamples = 4\nvalue = [0, 4, 0]\nclass = normal day"] ;
10 -> 11 ;
12 [label="gini = 0.0\nsamples = 1\nvalue = [0, 0, 1]\nclass = high-traffic day"] ;
10 -> 12 ;
13 [label="gini = 0.0\nsamples = 10\nvalue = [0, 10, 0]\nclass = normal day"] ;
9 -> 13 ;
14 [label="gini = 0.0\nsamples = 3\nvalue = [0, 0, 3]\nclass = high-traffic day"] ;
2 -> 14 ;
}